tree
version=v3
num_class=1
num_tree_per_iteration=1
label_index=0
max_feature_idx=21
objective=binary sigmoid:1
feature_names=MDVP_Fo_Hz_ MDVP_Fhi_Hz_ MDVP_Flo_Hz_ MDVP_Jitter___ MDVP_Jitter_Abs_ MDVP_RAP MDVP_PPQ Jitter_DDP MDVP_Shimmer MDVP_Shimmer_dB_ Shimmer_APQ3 Shimmer_APQ5 MDVP_APQ Shimmer_DDA NHR HNR RPDE DFA Spread1 Spread2 D2 PPE
feature_infos=[91.903999999999996:243.43899999999999] [107.715:592.02999999999997] [65.75:232.435] [0.0016800000000000001:0.033160000000000002] [9.0000000000000002e-06:0.00026000000000000003] [0.00067999999999999994:0.021440000000000001] [0.00091999999999999992:0.01958] [0.0020399999999999997:0.064329999999999998] [0.0095399999999999999:0.11907999999999999] [0.085000000000000006:1.302] [0.0045500000000000002:0.056470000000000006] [0.0057000000000000002:0.079399999999999998] [0.0071900000000000002:0.13777999999999999] [0.013640000000000001:0.16942000000000002] [0.00064999999999999997:0.31481999999999999] [8.4410000000000007:33.046999999999997] [0.263654:0.68515100000000007] [0.57428199999999996:0.82348399999999999] [-7.9649839999999994:-2.4340310000000001] [0.0062740000000000001:0.45049300000000003] [1.4232870000000002:3.6711550000000002] [0.044538999999999995:0.52736700000000003]
tree_sizes=424 432 531 530 531 640 635 639 638 639 535 537 538 541 632 635 636 637 635 636

Tree=0
num_leaves=3
num_cat=0
split_feature=21 16
split_gain=40.8155 13.2822
threshold=0.13399350000000004 0.43766350000000009
decision_type=2 2
left_child=-1 -2
right_child=1 -3
leaf_value=1.0523950435597715 1.1328857629923761 1.2440396136374015
leaf_weight=5.2179929465055492 3.5986158251762381 10.615916684269903
leaf_count=29 20 59
internal_value=0 0.744888
internal_weight=0 14.2145
internal_count=108 79
shrinkage=1


Tree=1
num_leaves=3
num_cat=0
split_feature=21 16
split_gain=35.053 12.3762
threshold=0.13399350000000004 0.43766350000000009
decision_type=2 2
left_child=-1 -2
right_child=1 -3
leaf_value=-0.11232441631823434 -0.042428983639634821 0.064410882195829564
leaf_weight=5.5623710751533535 3.6854776740074149 10.246935814619063
leaf_count=29 20 59
internal_value=0 0.72298
internal_weight=0 13.9324
internal_count=108 79
shrinkage=0.05


Tree=2
num_leaves=4
num_cat=0
split_feature=18 1 1
split_gain=31.0162 15.5236 0.202718
threshold=-5.9649094999999992 205.78100000000003 201.84950000000001
decision_type=2 2 2
left_child=1 -1 -2
right_child=2 -3 -4
leaf_value=-0.016508127718103321 0.064116022912530338 -0.14380084191291428 0.048861095642508588
leaf_weight=5.9884129315614718 6.1541411876678449 3.9915525913238525 3.3704841434955597
leaf_count=32 36 20 20
internal_value=0 -1.34839 1.17436
internal_weight=0 9.97997 9.52463
internal_count=108 52 56
shrinkage=0.05


Tree=3
num_leaves=4
num_cat=0
split_feature=18 1 1
split_gain=27.9083 12.6935 0.201757
threshold=-5.9649094999999992 205.78100000000003 201.84950000000001
decision_type=2 2 2
left_child=1 -1 -2
right_child=2 -3 -4
leaf_value=-0.01555263105419067 0.063241629818483788 -0.12843936182983265 0.047783436765539554
leaf_weight=6.0372079759836215 5.9328754842281324 4.2384927719831467 3.2765743881464005
leaf_count=32 36 20 20
internal_value=0 -1.24232 1.15484
internal_weight=0 10.2757 9.20945
internal_count=108 52 56
shrinkage=0.05


Tree=4
num_leaves=4
num_cat=0
split_feature=18 1 18
split_gain=25.2316 10.6164 0.206339
threshold=-5.9649094999999992 205.78100000000003 -5.4375699999999991
decision_type=2 2 2
left_child=1 -1 -2
right_child=2 -3 -4
leaf_value=-0.014660913225295344 0.046573494089826722 -0.11635715883019648 0.062474601841108313
leaf_weight=6.0829714387655276 3.1675700098276138 4.4390414208173752 5.7321192771196348
leaf_count=32 20 20 36
internal_value=0 -1.15129 1.1363
internal_weight=0 10.522 8.89969
internal_count=108 52 56
shrinkage=0.05


Tree=5
num_leaves=5
num_cat=0
split_feature=18 20 13 17
split_gain=19.6496 9.05524 0.831847 0.00011394
threshold=-5.9649094999999992 2.2247670000000004 0.042835000000000005 0.72814200000000018
decision_type=2 2 2 2
left_child=1 -1 -2 -4
right_child=2 -3 3 -5
leaf_value=-0.097631708274018125 0.029828942927446856 -0.0012411288900109315 0.061294588812172569 0.061722449797207118
leaf_weight=4.9870125651359576 3.1069505065679532 4.7641761004924774 3.1561196893453598 3.0691152215003967
leaf_count=24 20 23 21 20
internal_value=0 -1.01076 1.01919 1.23011
internal_weight=0 9.75119 9.33219 6.22523
internal_count=108 47 61 41
shrinkage=0.05


Tree=6
num_leaves=5
num_cat=0
split_feature=18 20 1 6
split_gain=18.0244 5.68365 1.84311 0.0137271
threshold=-6.6489249999999993 2.1994790000000006 210.43100000000001 0.0029600000000000004
decision_type=2 2 2 2
left_child=-1 -2 3 -3
right_child=1 2 -4 -5
leaf_value=-0.082365460378599334 -0.022347001684543691 0.065269837521499799 0.017036983247167885 0.060781850847290021
leaf_weight=4.9927392601966885 3.9659502208232871 3.4660450220108014 3.194205716252327 3.3510674983263016
leaf_count=22 23 20 20 23
internal_value=0 0.566212 0.967569 1.26127
internal_weight=0 13.9773 10.0113 6.81711
internal_count=108 86 63 43
shrinkage=0.05


Tree=7
num_leaves=5
num_cat=0
split_feature=18 1 14 1
split_gain=16.8222 7.20968 0.830041 0.000167624
threshold=-5.9649094999999992 201.84950000000001 0.017260000000000005 194.16400000000002
decision_type=2 2 2 2
left_child=1 -1 -2 -4
right_child=2 -3 3 -5
leaf_value=-0.0055672591848743413 0.02809484420513212 -0.090695507035512296 0.060170958545002685 0.060706432689769045
leaf_weight=5.3432178348302859 3.0027713626623136 4.6531656384468079 2.9429886937141418 2.9032790660858154
leaf_count=27 20 20 21 20
internal_value=0 -0.903863 0.989243 1.20874
internal_weight=0 9.99638 8.84904 5.84627
internal_count=108 47 61 41
shrinkage=0.05


Tree=8
num_leaves=5
num_cat=0
split_feature=14 19 20 8
split_gain=15.4407 7.97832 0.54701 0.00687722
threshold=0.0048550000000000008 0.19350100000000001 2.4576455000000004 0.037630000000000004
decision_type=2 2 2 2
left_child=-1 -2 -3 -4
right_child=1 2 3 -5
leaf_value=-0.077809548424908559 -0.028717152040797795 0.036271699171063147 0.063053691899518649 0.059662594298942599
leaf_weight=4.8154920339584377 4.4844519197940818 3.3725010901689512 3.1475140154361725 2.8478919267654419
leaf_count=22 24 21 20 21
internal_value=0 0.52254 1.04762 1.22886
internal_weight=0 13.8524 9.36791 5.99541
internal_count=108 86 62 41
shrinkage=0.05


Tree=9
num_leaves=5
num_cat=0
split_feature=18 20 18 16
split_gain=14.4333 6.62555 0.822956 0.000804929
threshold=-5.9649094999999992 2.2247670000000004 -5.4776334999999987 0.58706000000000014
decision_type=2 2 2 2
left_child=1 -1 -2 -4
right_child=2 -3 3 -5
leaf_value=-0.078917454514060514 0.026937535045575764 0.001937700715580838 0.060265926714369082 0.059042612428285984
leaf_weight=5.3543957173824328 2.9820700734853745 4.8094181716442108 2.7941263616085035 2.592194452881813
leaf_count=24 21 23 20 20
internal_value=0 -0.813152 0.960209 1.19354
internal_weight=0 10.1638 8.36839 5.38632
internal_count=108 47 61 40
shrinkage=0.05


Tree=10
num_leaves=4
num_cat=0
split_feature=11 10 14
split_gain=20.1744 5.87222 1.55778
threshold=0.012745000000000001 0.0080300000000000007 0.027355000000000001
decision_type=2 2 2
left_child=1 -1 -2
right_child=2 -3 -4
leaf_value=-0.0181431784338155 0.062742943695703587 -0.097548838564055662 0.020020135904478233
leaf_weight=4.709094241261484 5.8063747882843 4.6052753478288651 3.3732167854905128
leaf_count=23 39 22 24
internal_value=0 -1.14807 0.940873
internal_weight=0 9.31437 9.17959
internal_count=108 45 63
shrinkage=0.05


Tree=11
num_leaves=4
num_cat=0
split_feature=21 11 16
split_gain=18.5286 8.1104 0.0119534
threshold=0.13399350000000004 0.012745000000000001 0.5332690000000001
decision_type=2 2 2
left_child=-1 -2 -3
right_child=1 2 -4
leaf_value=-0.075807513366361379 -0.025205639040708123 0.062513363048832524 0.058586756726223724
leaf_weight=6.1823709905147579 4.2669482827186567 3.3418140485882759 4.6145623177289963
leaf_count=26 23 22 37
internal_value=0 0.608196 1.20472
internal_weight=0 12.2233 7.95638
internal_count=108 82 59
shrinkage=0.05


Tree=12
num_leaves=4
num_cat=0
split_feature=21 11 16
split_gain=16.6642 7.65765 0.0100671
threshold=0.13399350000000004 0.012745000000000001 0.5332690000000001
decision_type=2 2 2
left_child=-1 -2 -3
right_child=1 2 -4
leaf_value=-0.071136991923327286 -0.023658763470464486 0.061774645736801373 0.058098624764341945
leaf_weight=6.2568096667528179 4.3172938823699933 3.2158778160810471 4.4254510253667831
leaf_count=26 23 22 37
internal_value=0 0.591423 1.19291
internal_weight=0 11.9586 7.64133
internal_count=108 82 59
shrinkage=0.05


Tree=13
num_leaves=4
num_cat=0
split_feature=11 10 14
split_gain=15.1544 4.98647 1.49247
threshold=0.012745000000000001 0.0080300000000000007 0.027355000000000001
decision_type=2 2 2
left_child=1 -1 -2
right_child=2 -3 -4
leaf_value=-0.011446758644484816 0.061177498614420005 -0.083179171940770333 0.01747964890954538
leaf_weight=4.8488062024116534 5.1840114369988424 4.8420523107051849 3.1360696479678154
leaf_count=23 39 22 24
internal_value=0 -0.945759 0.894131
internal_weight=0 9.69086 8.32008
internal_count=108 45 63
shrinkage=0.05


Tree=14
num_leaves=5
num_cat=0
split_feature=21 9 1 15
split_gain=14.3837 5.71609 0.25945 0.0116919
threshold=0.13399350000000004 0.19150000000000003 142.59950000000003 19.655000000000005
decision_type=2 2 2 2
left_child=-1 -2 -3 -4
right_child=1 2 3 -5
leaf_value=-0.065163557690169169 -0.020606491333123176 0.040695705468183345 0.05757228654604836 0.062384353311234757
leaf_weight=6.3262290060520199 3.9047477245330793 2.545310266315937 2.2804462909698486 2.8272831588983536
leaf_count=26 21 21 20 20
internal_value=0 0.572408 1.07474 1.20472
internal_weight=0 11.5578 7.65304 5.10773
internal_count=108 82 61 40
shrinkage=0.05


Tree=15
num_leaves=5
num_cat=0
split_feature=14 1 20 21
split_gain=9.67181 5.68888 1.46491 0.0396311
threshold=0.0048550000000000008 216.87850000000003 2.1528935000000002 0.21883900000000003
decision_type=2 2 2 2
left_child=-1 2 -2 -4
right_child=1 -3 3 -5
leaf_value=-0.057588031940763111 0.019238134115029962 -0.026161712320708727 0.065445643938580059 0.056957065270477315
leaf_weight=5.1111870408058193 3.1914230287075025 3.925447665154933 3.1243341714143753 2.4558052718639374
leaf_count=22 20 23 20 23
internal_value=0 0.477357 0.925141 1.2342
internal_weight=0 12.697 8.77156 5.58014
internal_count=108 86 63 43
shrinkage=0.05


Tree=16
num_leaves=5
num_cat=0
split_feature=14 1 20 21
split_gain=8.72806 5.28376 1.44168 0.033564
threshold=0.0048550000000000008 216.87850000000003 2.1528935000000002 0.21883900000000003
decision_type=2 2 2 2
left_child=-1 2 -2 -4
right_child=1 -3 3 -5
leaf_value=-0.054263277832401619 0.018470176426785594 -0.024595925335488145 0.06454338838097147 0.056572326666107259
leaf_weight=5.1520208716392544 3.1587612405419332 3.9655090123414984 3.0124456733465195 2.3515184745192528
leaf_count=22 20 23 20 23
internal_value=0 0.461669 0.905361 1.22098
internal_weight=0 12.4882 8.52273 5.36396
internal_count=108 86 63 43
shrinkage=0.05


Tree=17
num_leaves=5
num_cat=0
split_feature=14 19 0 15
split_gain=7.88784 5.18189 2.20514 0.0603852
threshold=0.0048550000000000008 0.19350100000000001 122.26200000000001 20.662000000000003
decision_type=2 2 2 2
left_child=-1 -2 -3 -4
right_child=1 2 3 -5
leaf_value=-0.051224429888294447 -0.024457032705222103 0.0092483677571982264 0.056889360385538247 0.06771400933049633
leaf_weight=5.1839045584201839 3.9945160597562781 2.8506670147180539 2.0969367846846581 3.3413046300411224
leaf_count=22 23 23 20 20
internal_value=0 0.446482 0.897369 1.2708
internal_weight=0 12.2834 8.28891 5.43824
internal_count=108 86 63 40
shrinkage=0.05


Tree=18
num_leaves=5
num_cat=0
split_feature=14 1 20 21
split_gain=7.1339 5.00644 1.39573 0.0259782
threshold=0.0048550000000000008 216.87850000000003 2.1528935000000002 0.21883900000000003
decision_type=2 2 2 2
left_child=-1 2 -2 -4
right_child=1 -3 3 -5
leaf_value=-0.048431880306906115 0.017610246449916961 -0.024834341489445199 0.063271522872003924 0.056035268677393391
leaf_weight=5.208001613616946 3.128024756908415 3.9280588999390593 2.8482015430927277 2.1969863101840019
leaf_count=22 20 23 20 23
internal_value=0 0.431117 0.877021 1.20241
internal_weight=0 12.1013 8.17321 5.04519
internal_count=108 86 63 43
shrinkage=0.05


Tree=19
num_leaves=5
num_cat=0
split_feature=14 19 0 15
split_gain=6.46173 4.76874 2.21107 0.0496351
threshold=0.0048550000000000008 0.19350100000000001 122.26200000000001 20.662000000000003
decision_type=2 2 2 2
left_child=-1 -2 -3 -4
right_child=1 2 3 -5
leaf_value=-0.045853413571701182 -0.02373252232246173 0.0071759227513074593 0.056391826946485826 0.066487856439933157
leaf_weight=5.2253378629684475 3.9895061254501325 2.7587193995714188 1.9693539589643476 3.188242495059967
leaf_count=22 23 23 20 20
internal_value=0 0.416855 0.866138 1.25266
internal_weight=0 11.9058 7.91632 5.1576
internal_count=108 86 63 40
shrinkage=0.05


end of trees

feature importances:
MDVP_Fhi_Hz_=12
NHR=9
Spread1=9
PPE=8
D2=7
RPDE=5
Shimmer_APQ5=4
HNR=3
Spread2=3
MDVP_Fo_Hz_=2
Shimmer_APQ3=2
MDVP_PPQ=1
MDVP_Shimmer=1
MDVP_Shimmer_dB_=1
Shimmer_DDA=1
DFA=1

parameters:
[boosting: gbdt]
[objective: binary]
[metric: l2,l1]
[tree_learner: serial]
[device_type: cpu]
[data: ]
[valid: ]
[num_iterations: 100]
[learning_rate: 0.05]
[num_leaves: 31]
[num_threads: 0]
[max_depth: -1]
[min_data_in_leaf: 20]
[min_sum_hessian_in_leaf: 0.001]
[bagging_fraction: 0.8]
[pos_bagging_fraction: 1]
[neg_bagging_fraction: 1]
[bagging_freq: 5]
[bagging_seed: 3]
[feature_fraction: 0.9]
[feature_fraction_bynode: 1]
[feature_fraction_seed: 2]
[early_stopping_round: 0]
[first_metric_only: 0]
[max_delta_step: 0]
[lambda_l1: 0]
[lambda_l2: 0]
[min_gain_to_split: 0]
[drop_rate: 0.1]
[max_drop: 50]
[skip_drop: 0.5]
[xgboost_dart_mode: 0]
[uniform_drop: 0]
[drop_seed: 4]
[top_rate: 0.2]
[other_rate: 0.1]
[min_data_per_group: 100]
[max_cat_threshold: 32]
[cat_l2: 10]
[cat_smooth: 10]
[max_cat_to_onehot: 4]
[top_k: 20]
[monotone_constraints: ]
[feature_contri: ]
[forcedsplits_filename: ]
[forcedbins_filename: ]
[refit_decay_rate: 0.9]
[cegb_tradeoff: 1]
[cegb_penalty_split: 0]
[cegb_penalty_feature_lazy: ]
[cegb_penalty_feature_coupled: ]
[verbosity: 0]
[max_bin: 255]
[max_bin_by_feature: ]
[min_data_in_bin: 3]
[bin_construct_sample_cnt: 200000]
[histogram_pool_size: -1]
[data_random_seed: 1]
[output_model: LightGBM_model.txt]
[snapshot_freq: -1]
[input_model: ]
[output_result: LightGBM_predict_result.txt]
[initscore_filename: ]
[valid_data_initscores: ]
[pre_partition: 0]
[enable_bundle: 1]
[max_conflict_rate: 0]
[is_enable_sparse: 1]
[sparse_threshold: 0.8]
[use_missing: 1]
[zero_as_missing: 0]
[two_round: 0]
[save_binary: 0]
[header: 0]
[label_column: ]
[weight_column: ]
[group_column: ]
[ignore_column: ]
[categorical_feature: ]
[predict_raw_score: 0]
[predict_leaf_index: 0]
[predict_contrib: 0]
[num_iteration_predict: -1]
[pred_early_stop: 0]
[pred_early_stop_freq: 10]
[pred_early_stop_margin: 10]
[convert_model_language: ]
[convert_model: gbdt_prediction.cpp]
[num_class: 1]
[is_unbalance: 0]
[scale_pos_weight: 1]
[sigmoid: 1]
[boost_from_average: 1]
[reg_sqrt: 0]
[alpha: 0.9]
[fair_c: 1]
[poisson_max_delta_step: 0.7]
[tweedie_variance_power: 1.5]
[max_position: 20]
[lambdamart_norm: 1]
[label_gain: ]
[metric_freq: 1]
[is_provide_training_metric: 0]
[eval_at: ]
[multi_error_top_k: 1]
[num_machines: 1]
[local_listen_port: 12400]
[time_out: 120]
[machine_list_filename: ]
[machines: ]
[gpu_platform_id: -1]
[gpu_device_id: -1]
[gpu_use_dp: 0]

end of parameters

pandas_categorical:[]
